ConstantTerm,population,householdsize,racepctblack,racePctWhite,racePctAsian,racePctHisp,agePct12t21,agePct12t29,agePct16t24,agePct65up,numbUrban,pctUrban,medIncome,pctWWage,pctWFarmSelf,pctWInvInc,pctWSocSec,pctWPubAsst,pctWRetire,medFamInc,perCapInc,whitePerCap,blackPerCap,indianPerCap,AsianPerCap,OtherPerCap,HispPerCap,NumUnderPov,PctPopUnderPov,PctLess9thGrade,PctNotHSGrad,PctBSorMore,PctUnemployed,PctEmploy,PctEmplManu,PctEmplProfServ,PctOccupManu,PctOccupMgmtProf,MalePctDivorce,MalePctNevMarr,FemalePctDiv,TotalPctDiv,PersPerFam,PctFam2Par,PctKids2Par,PctYoungKids2Par,PctTeen2Par,PctWorkMomYoungKids,PctWorkMom,NumIlleg,PctIlleg,NumImmig,PctImmigRecent,PctImmigRec5,PctImmigRec8,PctImmigRec10,PctRecentImmig,PctRecImmig5,PctRecImmig8,PctRecImmig10,PctSpeakEnglOnly,PctNotSpeakEnglWell,PctLargHouseFam,PctLargHouseOccup,PersPerOccupHous,PersPerOwnOccHous,PersPerRentOccHous,PctPersOwnOccup,PctPersDenseHous,PctHousLess3BR,MedNumBR,HousVacant,PctHousOccup,PctHousOwnOcc,PctVacantBoarded,PctVacMore6Mos,MedYrHousBuilt,PctHousNoPhone,PctWOFullPlumb,OwnOccLowQuart,OwnOccMedVal,OwnOccHiQuart,RentLowQ,RentMedian,RentHighQ,MedRent,MedRentPctHousInc,MedOwnCostPctInc,MedOwnCostPctIncNoMtg,NumInShelters,NumStreet,PctForeignBorn,PctBornSameState,PctSameHouse85,PctSameCity85,PctSameState85,LemasSwornFT,LemasSwFTPerPop,LemasSwFTFieldOps,LemasSwFTFieldPerPop,LemasTotalReq,LemasTotReqPerPop,PolicReqPerOffic,PolicPerPop,RacialMatchCommPol,PctPolicWhite,PctPolicBlack,PctPolicHisp,PctPolicAsian,PctPolicMinor,OfficAssgnDrugUnits,NumKindsDrugsSeiz,PolicAveOTWorked,LandArea,PopDens,PctUsePubTrans,PolicCars,PolicOperBudg,LemasPctPolicOnPatr,LemasGangUnitDeploy,LemasPctOfficDrugUn,PolicBudgPerPop
0.6056174615459162,-0.028687073123786565,-0.2126703907069126,0.10049619549569713,-0.049379307656980245,-0.03774228703377565,-0.04276683576888451,0.26788300946229276,-0.22438076179047214,-0.1907017929594565,-0.04858702993797399,-0.12355391721269544,-0.003925067482248947,0.10025973123585373,0.024770923262930615,-0.00785024085683689,-0.24414355515593403,0.25217837774101687,0.05070572864655444,-0.08074760115480684,-0.10889943574361734,-0.0899587110544188,-0.0981043579068898,-0.012317471980203047,-0.027193876089679016,0.03320092420129675,0.03713906122241451,0.017032175248618456,0.022905561935663912,-0.16527746047478786,-0.15701219467227912,0.11932747697826163,0.17853868506220102,-0.039250559589404196,-0.010199787560177514,-0.08265762344339135,-0.08562764054350447,0.061914698430865014,0.09521783717140507,0.3192369304371038,0.21970006933225963,0.04159027330744681,-0.23195353840093907,-0.20271256728581616,-0.14269277742693454,0.11096782296037616,0.005906829505196336,-0.008752952287473456,0.04845189965437215,-0.10157725431999194,0.015917651413041554,0.3401081472852862,0.005896023117567654,0.02640822968372326,-0.019083299928190252,0.015153898233453394,-0.02187697138938644,-0.07479543321174818,-0.02894898120360572,-0.003753436319740177,0.0007933136258298206,-0.10833590059863157,-0.024628964931639886,-0.12642424457490697,0.08460349205464042,0.6232325322532082,-0.14035401147291063,-0.09542603507520275,-0.1375491181157874,0.156579266688316,0.08019369397875663,-0.09740242297116368,0.2375579599272807,-0.05186030793029273,0.002714246615995244,0.06679930148630682,-0.07090812035570514,-0.0576569695162838,0.016487384741628898,-0.0027147041056993695,-0.24974800314816675,0.056435455129681206,0.14240265505143068,-0.13339894256022553,-0.055665641835029256,-0.0021784491938747295,0.24923864759898434,0.038797359680375385,-0.036902084013211656,-0.10464693818002424,0.0053080243586473095,0.0004933454376162721,0.12256455380265971,-0.024641716878791953,-0.01928028007485134,-0.007919940856865895,0.04716225660435423,-0.032707803815098836,-0.04350478004926465,-0.06375894046018124,0.004125700036482864,0.00883908311310623,0.005602654944738392,0.01170819361096228,0.018576617427282557,-0.011256131103962211,-0.009638804405613658,-0.01041541499608708,0.008168026900672407,0.0328708539223602,0.0022136756468173016,-0.016426023484096896,-0.023515686682187502,0.014687987341986683,0.013267405006808381,-0.020457687825854415,0.019867744475894324,-0.005003526470355079,-0.0021294961868498653,-0.01501475957860895,0.007299069633179328,-0.0015878838074435044,0.018291101651739274
0.3483706913560696,0.004930695220076721,-0.16530532068841,0.12487853618778046,0.002145336369107799,0.00338395562281884,-0.006423856434241716,0.24451980806839194,-0.323233618346674,-0.11429254409074126,0.13296845253110884,-0.03882395182341566,0.02484750857243901,0.031212862362043424,-0.019738279276631226,0.015393878153664388,-0.230936077304507,-0.003784378282256988,0.05174847324465952,-0.04501165758641666,0.01239635540321415,-0.1553850381931682,0.003510588774373759,-0.023242234272265842,-0.03205471253505212,0.04190692589476395,0.048464130408776826,0.025863079505033318,-0.016957213949716353,-0.11686276702887283,-0.08285442517527321,0.02993220410573233,0.015314204043561453,-0.029637625079274078,0.07419935694442577,-0.05717174523200781,-0.03054290663682406,0.03538478270591322,0.14200935264378292,0.5636930576208463,0.24133008028339709,0.2757019258020511,-0.6663374784706649,-0.02219090845106001,-0.047574022179344866,0.02965873287781353,-0.03711591457718517,-0.006927615165550312,0.09327817378040662,-0.15945644600209963,0.015028527939871462,0.34276992011594576,-0.032995270253743776,-0.025578034283286116,-0.02244795670808803,-0.006041217704070144,0.07021110948745679,-0.014376661025791118,-0.04403853268320539,0.10778630808533173,-0.1391866440741164,-0.06625263302837724,-0.08187704865650754,-0.3914248194767128,0.327484748741565,0.4663365106674771,-0.15071728418790373,-0.11550763189298707,-0.29888313256193744,0.19141360764076384,0.11854833090643571,-0.10558974225456157,0.1933065031668311,-0.054303492038933455,0.207870633805355,0.03997639877293546,-0.0631243095496715,-0.023793422091244732,-0.007922066063072468,0.05763021574385271,-0.18270260773012328,0.022690074224017857,0.11233828895754563,-0.19437845985777918,0.13919660145409146,-0.0009043902411800982,0.11821463760775149,0.048896532755787404,-0.07156695869620368,-0.06849427836463498,-0.0036274241256473915,0.0006429267833860325,0.11234431109543665,-0.0016640172581388925,-0.013525378522215126,0.01305949719048529,0.016289869613593168,-0.042430085047858966,-0.04394912723856363,-0.05594588098983908,-0.025551873035997378,0.0038286580697819007,0.03435101425958058,0.0018730556043686463,0.043511776967583404,-0.010227958523024027,0.013170776254923362,0.004399099149266665,-0.016971245479077975,0.024381780721235525,0.013547847790119338,0.0019093277158113158,-0.0085675255650083,0.026185391392997043,0.03026819893510373,-0.004351691794964505,-0.00294753333301845,-0.006044338042272935,0.017689597068623168,-0.016630874671626286,0.005957224894988087,0.00328615768249796,0.00701670834232616
0.763165250684881,0.04205334589622914,-0.0825348061357053,0.07349700176928582,-0.06409816423200025,-0.02117970862771387,-0.015468074095137202,0.06834447456151266,-0.45394514926571444,0.03789007481449208,-0.11009392775112878,-0.11088759313434007,-0.009175211450637006,-0.04497758318635592,-0.03156671882937609,0.003428562135024363,-0.27667390749894505,0.20527662961514662,0.04028725144490499,-0.05839178802366485,0.005355266636362654,0.2732862455787743,-0.3688442631926745,-0.02227406592913393,-0.03995424364702044,0.010345654633266518,0.044760457594073225,0.02361080982345423,-0.03846256986414178,-0.14257631346845218,-0.11694507486620151,0.030555733193395024,0.08136869823667091,-0.09743077465066913,0.004364652719909573,-0.07459512253060961,-0.04520051834504676,0.06671400213949433,0.1399020037263992,0.08726441701717302,0.2619661064237486,-0.08958414714119856,0.13712722196036675,-0.031219798844657087,0.07150536523216391,-0.2481353709567566,0.047072371761939014,0.004674847011505279,0.04317043439073341,-0.11566189765465425,0.061975783902172475,0.26944844527927536,-0.01504920717628308,0.030689772761695825,-0.05909109324507899,0.00279421613146702,0.05900711814544285,-0.07230955388113458,-0.016702105016598624,0.13502633930680127,-0.08947362734958106,-0.1150855740321862,-0.09150757304110754,0.020378397775047075,-0.16661619757767032,0.6530243482940945,-0.18194090089803872,-0.14320062233042286,-0.21198237522559946,0.16305969500355877,0.12279341753594919,-0.05801707035020891,0.2481369695267011,-0.048420257595145455,0.08079940775148656,0.046630926978788234,-0.08206998149473503,-0.07090250686165189,0.020510628488645474,0.012079386966194983,-0.22051763526249762,0.12484066227155377,0.041004617843086066,-0.258764544745594,-0.04386309616614659,-0.1348343957852689,0.43321219600178695,0.01927763700545657,0.01194171891575277,-0.11188504884234174,0.014994917589706766,-0.009278861961634143,0.0795921278701408,-0.02677780985202107,0.015802969879966385,-0.025923900823713042,0.051780250351016716,-0.035218854258146665,-0.03194504848177353,-0.045145887112656664,0.0007749991350470857,0.010735547316736453,0.010089022894867846,0.013788349577393114,0.01849603036539553,-0.02270027839077217,-0.021020029553670688,0.011132410839287833,0.0004217524401415318,0.008666712534935405,0.009598937974796516,-0.013205482286646026,-0.03336180603365835,0.005906227436062407,0.02566067026468609,-0.02601729778011008,0.004523185805949442,-0.005262259511331153,-0.001778484852601566,-0.023281460022890513,0.018997617776593947,0.007518259616606449,0.022542962274228674
0.6561234049824676,0.008088107309268108,-0.14030427894048914,0.1392107177051044,-0.0580539287453625,-0.0386963600002944,-0.05872278745487336,0.2223468803200246,-0.3476578691179589,-0.12062574665562723,-0.019114358168318975,-0.10841631059008588,0.00912277652304339,0.203374966039171,-0.019464278087562376,0.037746058294655896,-0.3115108924841812,0.18697963620020083,0.022360199322326815,-0.07336094583156454,-0.07428346324191029,-0.10985531688052896,-0.10248106076045849,-0.014094246209886908,-0.026850351741242926,0.029761848291892955,0.026919562313940777,0.04374751978604295,-0.026797745756582052,-0.1807429561419765,-0.1952075068218544,0.10144218742879994,0.12363903649581319,-0.050135704496742456,-0.007778863021224214,-0.050357267423366506,-0.03583352570165156,0.038773011231999575,0.07601146971989661,0.4029438376393119,0.29580860570196704,0.10610341876186322,-0.39023091548915656,-0.06887966541275142,-0.2103103123274792,0.21135947322190055,-0.07315196908037619,-0.05610248034957304,0.049277584396004666,-0.12654847230396632,0.061734010007372296,0.2313930454464797,-0.00908765981668979,0.019425988818100842,0.0021848987471265735,-0.04311840645504077,0.034653243598753214,-0.06482090020181923,-0.006910895023876491,0.05776900314898063,-0.04799579528207083,-0.07803017460243755,0.051603024570941375,-0.23926856154672138,0.12077697057732661,0.45054223340231236,-0.18146878805366887,-0.015205792539562224,-0.005487900277024421,0.1996365497620109,0.10600734368596425,-0.07397340334856126,0.22522512646973608,-0.06698059735987197,-0.12515766018169663,0.04779908430942554,-0.10132357803726778,-0.04486428642526766,0.051490931376453664,-0.005442258370925657,-0.2051136060533419,0.05382535079937403,0.0688155481248935,-0.21345875113465068,0.008947229745010193,0.04516478040907154,0.19798870463297874,0.0392467705388389,-0.023399499373904536,-0.11120805037481629,0.0031649351654271934,0.004989934521422565,0.058901731090045276,-0.027322570828900515,0.0275348063080158,-0.004700699763961695,0.054400235635729995,-0.055231072887410804,-0.029537977001139144,-0.030921514921901365,-0.02375513857496362,0.008980147204822514,0.004368585243439787,0.00803202044097474,0.02320179018449858,-0.0022700752201038447,-0.022264299936972338,0.002089305791391596,0.009093785350166743,0.021573554121911417,-0.0048967633086005255,0.005403254986932317,-0.030223650701901507,0.012877985541687023,0.06755584113287033,0.0040393249112705976,0.006353370004897723,-0.0006943923480244359,-0.013434080999978969,-0.010676232041583697,0.008145033462309955,-0.0024231857922660024,0.023249408784649435
0.5111177475007855,0.038832290641617376,-0.11597534893211286,0.15077226069061708,-0.020628960448858827,-0.016935224632330645,-0.08072559115729144,0.2647990021905684,-0.4424413588868031,-0.10478887513380264,0.0998748279555595,-0.12911500067683962,0.010832320663161626,-0.009147471180652386,-0.04000330516044655,0.01561698456251551,-0.32609092156742286,0.08991147944509896,0.06753809938714661,-0.07170009055287382,0.04182798595438622,-0.1197323609953847,-0.014727423292694691,-0.014271729599088536,-0.038386599194691756,0.048120553574003445,0.03828933928191621,0.01006389833453984,-0.03551540657626927,-0.15645979204762422,-0.10066163407019285,0.03206035998681009,0.09129009295165617,-0.05714525552144512,0.15397462563332015,-0.06201879845453853,-0.0456023947278362,0.06225270917883552,0.11751973065516087,0.2782176282448832,0.3315145076241538,-0.15792542159015382,-0.02537652995277595,0.018651467783439235,-0.20214898254227476,0.12032844997374889,0.0007969797344334756,0.03324169186505849,0.05983820832496772,-0.1752845357493038,0.035817494388026894,0.24299006695171121,-0.016434934800903758,-0.01421534335399282,0.04738165430649133,-0.058090230375410626,0.016751314581955182,-0.06375059546839254,-0.011999735710031989,0.1788339699450276,-0.2120499149320903,-0.09962546522270754,-0.07534501903818575,-0.24180204524600174,0.0492438864642169,0.4586942563826938,-0.15463462906054376,-0.05573569936562292,-0.14969108106912687,0.3260271074936609,0.11395548730011612,-0.07052973317335001,0.20702575734325854,-0.0513730392584089,0.03740582011452445,0.07761037650921826,-0.0922895425521511,-0.06533249155180303,0.049127978065249864,-0.008743444078785328,-0.19710444307110975,0.11057092402108139,-0.004366503134653921,-0.14195933059999505,-0.12478949086954985,-0.006498594940370084,0.3190171046736988,0.06344113302751264,-0.00851039668010832,-0.10209975037593695,-0.008257150767790454,-0.005902312933066895,0.11890434393383245,0.008395909493342096,-0.03123510026186056,0.04301602668057018,-0.008577023504641089,-0.045777549727360395,-0.020624740978794985,-0.07226887972577183,-0.01099794235219428,-0.012378639975601857,0.01408295629218434,0.021277910404700423,0.026869046080335343,-0.0009389117766766264,-0.019255452380611236,-0.0034147673778608997,-0.011913169348445031,0.006507321315876061,-0.0069605639351436425,-0.009548491178204506,-0.025553828719032383,0.015077915095563572,0.0809093880544246,0.012835678666885779,-0.009928172467189002,0.0069427553583603745,0.015266397526325234,-0.018119677530467303,0.012979947807713004,0.006946412492026616,0.025773453118855046
