ConstantTerm,population,householdsize,racepctblack,racePctWhite,racePctAsian,racePctHisp,agePct12t21,agePct12t29,agePct16t24,agePct65up,numbUrban,pctUrban,medIncome,pctWWage,pctWFarmSelf,pctWInvInc,pctWSocSec,pctWPubAsst,pctWRetire,medFamInc,perCapInc,whitePerCap,blackPerCap,indianPerCap,AsianPerCap,OtherPerCap,HispPerCap,NumUnderPov,PctPopUnderPov,PctLess9thGrade,PctNotHSGrad,PctBSorMore,PctUnemployed,PctEmploy,PctEmplManu,PctEmplProfServ,PctOccupManu,PctOccupMgmtProf,MalePctDivorce,MalePctNevMarr,FemalePctDiv,TotalPctDiv,PersPerFam,PctFam2Par,PctKids2Par,PctYoungKids2Par,PctTeen2Par,PctWorkMomYoungKids,PctWorkMom,NumIlleg,PctIlleg,NumImmig,PctImmigRecent,PctImmigRec5,PctImmigRec8,PctImmigRec10,PctRecentImmig,PctRecImmig5,PctRecImmig8,PctRecImmig10,PctSpeakEnglOnly,PctNotSpeakEnglWell,PctLargHouseFam,PctLargHouseOccup,PersPerOccupHous,PersPerOwnOccHous,PersPerRentOccHous,PctPersOwnOccup,PctPersDenseHous,PctHousLess3BR,MedNumBR,HousVacant,PctHousOccup,PctHousOwnOcc,PctVacantBoarded,PctVacMore6Mos,MedYrHousBuilt,PctHousNoPhone,PctWOFullPlumb,OwnOccLowQuart,OwnOccMedVal,OwnOccHiQuart,RentLowQ,RentMedian,RentHighQ,MedRent,MedRentPctHousInc,MedOwnCostPctInc,MedOwnCostPctIncNoMtg,NumInShelters,NumStreet,PctForeignBorn,PctBornSameState,PctSameHouse85,PctSameCity85,PctSameState85,LemasSwornFT,LemasSwFTPerPop,LemasSwFTFieldOps,LemasSwFTFieldPerPop,LemasTotalReq,LemasTotReqPerPop,PolicReqPerOffic,PolicPerPop,RacialMatchCommPol,PctPolicWhite,PctPolicBlack,PctPolicHisp,PctPolicAsian,PctPolicMinor,OfficAssgnDrugUnits,NumKindsDrugsSeiz,PolicAveOTWorked,LandArea,PopDens,PctUsePubTrans,PolicCars,PolicOperBudg,LemasPctPolicOnPatr,LemasGangUnitDeploy,LemasPctOfficDrugUn,PolicBudgPerPop
0.09336307888969449,-0.013949333544512471,-0.006390827639515404,0.12380641536982588,-0.03485496785141411,-0.03389601993632968,-0.022647520188184604,0.04204490972938088,-0.041966782907847874,-0.02830134921629782,0.05734883279285306,-0.055221042639212556,0.009570489667542127,0.012650655975821094,0.012080820677320088,-0.017203726948232627,-0.08718666647650497,0.07270416159123556,0.04240246929773228,-0.03170212075463209,-0.015111762359782371,-0.010368649351734134,0.010290880412660257,-0.002111573234794745,-0.024219946966652816,0.0323025239101012,0.03682087509633624,0.01900617382970589,0.019600197584632932,-0.04491338170629828,-0.06265565628670766,0.04822622520698363,0.04016589951987865,0.001004943102882066,0.017193259343719652,-0.04585799142587753,-0.032772848054007944,0.03164126183673804,0.03716283509989207,0.12038755156632502,0.07023616821679425,0.030331063199275487,0.05566106175219001,0.0048011757550337104,-0.04510026070717032,-0.0066637666777392334,-0.01640692898517193,-0.009787127536204483,0.02410543953897573,-0.05946158064983685,0.022995735435431645,0.27219380034605084,-0.004662920113228838,0.014116004998814033,-0.01782771477378391,0.0024426608110555597,-0.0059484099967624555,-0.046498560881359556,-0.009877183964601955,0.010543992588172648,0.02654899725605682,-0.05217884527906425,0.0009662832687819148,-0.012993128335016606,0.001743325148859375,0.06473425045232505,0.01016258285051325,0.04800813781334024,-0.01420608710654622,0.06026358571519778,0.0726161749348499,-0.03357539987383796,0.15625193981017751,-0.03957674955285512,0.007755809908319907,0.06452627853204027,-0.03734114354653893,-0.01737266284946975,0.012820790246186441,-0.008963680899872276,-0.06560795243342331,-0.0018009071650648928,0.02317809000435907,-0.07092554289865421,0.013414844726673328,0.014005661574728842,0.05572197619446982,0.05112072294466105,-0.004383114563563498,-0.07989107974708425,0.009161248778572377,0.0019071717534416275,0.06304348242122311,-0.02170996604742139,0.006720119689791851,0.0076175376061699065,0.027286828421594942,-0.0196445769265965,-0.03430125219891835,-0.02882942721223051,0.017178522461647073,0.007305700226190456,0.0069368483869311414,0.01355963738049916,0.017871117780567707,-0.006953066929881654,-0.00852128171172232,-0.007626235332900646,0.005557653223141824,0.03324440406215901,0.009071389240501566,-0.006235350109807687,-0.023759534999150157,0.016021887680856845,0.02229801407040434,-0.00047562371407584066,0.024213821234834437,0.0029687982488549244,0.004751147925887478,-0.012352670468576068,0.009533612600898427,0.00635037378754132,0.020342928783205178
0.06002814654533069,-0.005921534551536955,0.012801013645360718,0.13971213379082478,-0.015430037947226525,0.0037985445397469087,-0.004232761201454054,0.025701041823115285,-0.06939107065932992,-0.02782541613750294,0.07944692517061284,-0.00761311313376752,0.02785261471713497,0.013334840273061968,0.003376188321336686,-0.004312001872193116,-0.08169007688570067,0.014614367070769319,0.04719265671616351,-0.03168675281288667,-0.006395305075251837,-0.00408221526882019,0.019498638087437556,-0.015533993773365796,-0.01602439089409915,0.036802830576826775,0.044542943402063155,0.020433901154258794,0.005789066681121709,-0.038648375077083665,-0.045707324471603285,0.023021527625533306,-0.007218141696049693,-0.008485922133537428,0.03613199225443521,-0.036134568385125146,-0.009717960608500647,0.001874310711842811,0.03857524928546509,0.1326062310491271,0.08477008890545801,0.007165800349725025,0.04913044848054622,-0.0007734599575833181,-0.028482465624327446,-0.024993284631652696,-0.06078345523111959,-0.001109674721778546,0.03511670219353513,-0.07545539286299428,0.024515100085066743,0.26325809500789205,-0.01573167100910426,-0.02106806511265642,-0.019528268379247163,0.012157374775961129,0.03380719603733087,-0.018961532525412546,-0.022780359196522108,0.04068634141490682,-0.02972275794811048,-0.034107405444325285,-0.026314021542262585,-0.021564064275510515,0.00914627795732907,0.07863564330484726,-0.017929269246061284,0.03314636073198745,-0.025311367692781046,0.07901874350333163,0.08600270546008831,-0.03958197642071431,0.14243695535304077,-0.040609326469721145,0.01061664197122595,0.04784379856157704,-0.03410175063844919,0.0015450484312930276,0.010919110936370328,0.04663866795158269,-0.03902315692557499,-0.002191261489544076,0.02346206626644529,-0.10175024864038248,0.03080273895769231,0.0266184652005822,0.04024594248644055,0.05721256640726444,-0.023707975621269906,-0.07097611891123616,-0.0008437708512774085,0.0013085700143329962,0.058085997084291935,-0.015698189400946264,0.012007679162705289,0.02534082839835245,0.013252648538048452,-0.034915281416405576,-0.035399899786507046,-0.030728919263813683,-0.007631999880866401,0.0036365891658604824,0.03808319225986422,0.004569452142786977,0.04048994987816902,-0.010719692396590116,0.013581413806536217,0.0020515346059174853,-0.008814960244006546,0.023682121366787108,0.018063396605945085,0.007151237935856319,-0.008134927975395622,0.02647295505438654,0.03490333059895323,0.006843749693715538,-0.00038937457485336354,-0.0006988947124258846,0.018308665693647815,-0.01749887128266288,0.007238901931739747,0.007161211471889264,0.011268467780559597
0.08562448966891065,0.04105086359771207,0.04693600367356951,0.10433541070892514,-0.029983723205644252,-0.014022026225205798,0.00047912020192680815,-0.0006795636913021217,-0.05029070829052035,-0.01708319216110611,0.05499282903804367,-0.06250752596567961,-0.0006988598183593469,0.009846042270850848,0.02154220059085871,-0.006012362462063886,-0.09735833920284023,0.0855843995411685,0.03526898735470583,-0.016735222674943998,-0.007944251965555671,0.01071088375644852,0.002666888090121517,-0.012089066067022989,-0.021172353238292786,0.019154060502515596,0.03808362037445323,0.02041895197976921,0.00815134341482153,-0.04441924042333764,-0.05899871968129926,0.04436290290912959,0.015102061552559092,-0.04008019472088779,0.0417368178326651,-0.04807789265448761,-0.0015983674252105645,0.025868932853048126,0.035224710620612366,0.10734865663960734,0.0727064417628296,0.057472353861202266,0.07316321106339237,0.028435542153161984,-0.026820431832786942,-0.08969974540589165,0.003872602801194877,-0.0015995663588964995,0.00920946978768043,-0.07314336218210417,0.05375604419412572,0.23358806061793194,0.0026449138154288412,0.010676218883988934,-0.038036204461477506,0.0147531607554602,0.04241666146974018,-0.036506224224610445,-0.011599678474197198,0.04752743563929508,-0.004630180687422037,-0.058039613401752524,-0.03475836357753108,-0.016677388407914176,-0.03216472682992382,0.0907728239124039,-0.001607535772384809,0.019779737553861247,-0.035056377151672286,0.07569963234875263,0.07657060994069848,-0.00801383640491811,0.16653218577611528,-0.03932214768980533,0.018419550738464577,0.04346225532557773,-0.039883060773663825,-0.027031823622578846,0.031335015033301696,0.004835031304613435,-0.04472151466027751,-0.010925319330342879,0.015116520478932416,-0.12976751588183083,0.017694969579685742,0.02161423707160627,0.07758854816816439,0.051110094036562886,0.019265367136712543,-0.08496073390690811,0.017630600654048752,-0.007562517281948608,0.047587948461366006,-0.01303014881258276,0.022693677859747293,0.0059829224297316685,0.024496675520401676,-0.029667263504364237,-0.029835278172735978,-0.017904042703464882,0.011555233083694817,0.002010254019880949,0.014722652106303623,0.014249388910402155,0.02894688262551842,-0.014450854296749506,-0.01810522896883273,0.00653084666133675,0.00043326924527037347,0.009080127983246897,0.014806319785269959,-0.0022421894481200757,-0.028646250166983578,0.007873859553208627,0.02976459136678706,-0.0055918648893263714,0.006304333279500585,-0.0047740013967989825,-0.0033335582807440603,-0.022017840576762687,0.018332450625899516,0.011571726235586409,0.027163694365528398
0.08856052726576694,0.006712992923976584,0.02315668232745581,0.15233623356111753,-0.03088993044683383,-0.028053700053100435,-0.02904230683565708,0.036453917782575784,-0.06110789455248859,-0.027849514236014034,0.06617492595912247,-0.0482971947268344,0.01666780412063138,0.030947351524285564,-7.148133134461058e-05,0.0171689763429804,-0.1002632559722865,0.06259765983857518,0.036474332075529796,-0.034385055948478196,-0.003630430679396914,-0.007851072713658928,0.008809242535785071,-0.006367305939483071,-0.016690547213680546,0.029576680221944984,0.018286855895655443,0.03886400726964846,-0.00219709195033479,-0.06098806687048447,-0.08115238825862146,0.03140576944684803,0.013943796674023998,-0.014932546677935324,0.02038078694217218,-0.03046731235260325,-0.008668261310679486,0.01896480939606651,0.027091073894648394,0.13132914388919442,0.10545518601962345,0.02054424879858193,0.051593614594548524,0.005947969851389824,-0.054251681372529545,0.014143888127838396,-0.057647605571400126,-0.0390696721766435,0.015304985865616443,-0.0690722927396775,0.05679312436619987,0.21752767391033934,-0.010391634278819409,0.010481269452170804,-0.009139291817827695,-0.013475016421387011,0.017457328486341288,-0.03876246057406515,-0.0010140493415400544,0.031747166485973616,0.008890832852098596,-0.04396742481390156,0.02489056701581309,-0.03304033238829196,-0.013819044749238459,0.08430834365543519,-0.011979805218419556,0.058986269023283744,-0.0008055199184825862,0.0728627966230232,0.09339144761164059,-0.02020062819635353,0.1548371161522114,-0.0560829850806058,-0.0017264458636768107,0.045007730531296294,-0.05730528846952689,-0.015181981805658544,0.03502459506485595,-0.007430466879206121,-0.05231293003486519,-0.003672535474575432,0.004108852462938253,-0.12070044182799924,0.02784155046127955,0.03504911767186415,0.054304938659655674,0.0441721448296038,0.002772269608146749,-0.08503845324586158,0.008526848507339136,0.005582241372606775,0.049588947544722387,-0.01788740320069919,0.028762070384158914,0.014622334627813462,0.031508836253819505,-0.03957440190668031,-0.021004093035832876,-0.001417114602818837,-0.006082447747986013,0.009812192750291389,0.00953034447599016,0.012659790089156287,0.022650840762579547,-0.0001316540897777982,-0.020280384123162905,0.0030955987701128795,0.004110639642222538,0.022567682724137905,0.003860100790091435,0.012862652575243307,-0.025429235685960005,0.015920153005162398,0.05425034372319117,0.0231563847025969,0.014147815627618885,0.0012399687278755178,-0.007489853998769617,-0.009053490995129223,0.009350044116320134,0.00582267194861107,0.02309242353117047
0.07868548597618014,0.017944302586872695,0.011521669670077114,0.16384778935857927,-0.020752062476129044,-0.01045880541351786,-0.048380290719914024,0.04069671251133346,-0.07584834131636438,-0.023988620850387988,0.08612900830529932,-0.056496918727078065,0.01804863354756522,0.006573780702550343,0.008579843704182296,-0.005185893507886306,-0.10892400175683767,0.045660320527094976,0.06135804251674691,-0.053513421241460184,-0.009246095652030911,-0.005340057649433998,0.026936224110302935,-0.0024471646992363545,-0.024858518412922342,0.046203090386485984,0.02916733700546267,0.012594239737621214,-0.00549834037476225,-0.044139538722488866,-0.04911859377878858,0.02951364209408304,0.004582940950580854,-0.03389273985275495,0.06388886542432771,-0.03896864907929448,-0.010631734964481665,0.019526012631973403,0.03530534004260369,0.13521605986785973,0.09329919655943389,0.009411016144182145,0.052161379717175965,0.024235720672207868,-0.04755788115734029,-0.00790173444539031,-0.0358607109312921,0.020328251112077297,0.014961251205944631,-0.08608302566761623,0.03652940167121368,0.22060470638047291,-0.007971225312256476,-0.009335611741505451,0.0017115781793531626,-0.006312059206945934,0.008134573998311044,-0.04100842934593196,-0.0029027679369454523,0.054110056477711554,-0.04168911419375043,-0.053400666821538136,-0.030394621033582238,-0.022809712641957972,-0.018166446837287024,0.08264409399284198,-0.012665341613099939,0.04607702282457649,-0.029906770466709805,0.11626334949893241,0.09539479305838455,-0.027472336139099836,0.14592493665277692,-0.03822682876615849,0.0028942757761620252,0.06822740206671428,-0.04999161735948994,-0.02349521730049964,0.035688415015042774,-0.00956343053355552,-0.052696824669029245,0.004663169315232675,0.009234520457982315,-0.0886685751408785,0.009207515732419817,0.019359803384349013,0.059461673002211335,0.07341210085981542,0.01214472624216966,-0.07757954203458578,-0.0034096466842106557,-0.004869070534202221,0.06549996553979694,-0.002489112174742212,0.001107456933361662,0.046114815108749194,-0.006632539691888328,-0.029546387503199323,-0.01954591627679371,-0.037729829104053675,0.0012699723423221648,-0.0076917198252145404,0.017024853097150176,0.020809486074821172,0.02792916042813179,0.00034278724652748657,-0.016424736014015978,-0.003083612053497709,-0.011520859468600667,0.009060362087642066,0.00525445744010521,-0.007417591868539158,-0.02319220900018526,0.014305057520387604,0.05035856944540883,0.02424120477217266,0.001082024167824474,0.010040502187182495,0.019977983175813285,-0.020676573022485156,0.013340840624882225,0.014199316793652704,0.02853053375707354
